weight_t weights1[N_INPUTS][N_LAYER_1] = 
  {{  3.26523632e-01,  -1.07090501e-02,   5.75113118e-01,
       1.59862727e-01,  -6.27128720e-01,   3.78917694e-01,
       1.98244750e-02,   4.86689121e-01,   4.89841521e-01,
       -5.03282249e-02,  -3.64929259e-01,  -6.09960794e-01,
       5.57365529e-02,  -6.16103187e-02,  -1.51637629e-01,
       3.22940439e-01,  -3.78516734e-01,  -3.94984931e-01,
       8.20123628e-02,   2.17025220e-01,   2.87379980e-01,
       7.60144293e-02,  -2.83490092e-01,   3.02344382e-01,
       3.67277563e-01,   3.74429405e-01,   4.15364146e-01,
       -4.72969115e-01,   2.02370286e-01,   2.23769233e-01,
       5.78654587e-01,  -3.16326201e-01},
    {  4.31739897e-01,   5.36164999e-01,  -3.40992391e-01,
       1.87164798e-01,   2.56199479e-01,   3.21206361e-01,
       -4.33199592e-02,   1.88371420e-01,   2.43162915e-01,
       2.60036707e-01,   4.42737550e-01,   2.05103874e-01,
       4.58710104e-01,   5.20474538e-02,   4.76424307e-01,
       -3.07845294e-01,   4.70586210e-01,  -3.74450743e-01,
       -3.62168759e-01,  -9.53772962e-02,   6.75030798e-02,
       1.85500860e-01,   4.51430887e-01,  -1.31020218e-01,
       -5.98207593e-01,   9.23992097e-02,   5.35176158e-01,
       -3.02204996e-01,  -1.37354121e-01,  -5.20194113e-01,
       -5.49066126e-01,   1.52384877e-01},
    { -1.87568799e-01,   3.60454202e-01,  -2.72666723e-01,
      -2.29999617e-01,  -3.76636058e-01,   5.12537479e-01,
      -3.73352349e-01,   1.72460988e-01,  -1.38445109e-01,
      -7.88982436e-02,  -4.17357534e-01,  -3.45937252e-01,
      4.59903330e-01,  -3.51751238e-01,   4.80493873e-01,
      1.37099862e-01,   4.22819912e-01,   9.76854563e-02,
      1.08829439e-01,   2.63141841e-01,   4.01882201e-01,
      2.10449234e-01,  -2.88127035e-01,   2.01872870e-01,
      -5.23279488e-01,   3.71773899e-01,   3.86946201e-01,
      1.17307328e-01,  -4.89025675e-02,   4.25580829e-01,
      -1.10433944e-01,  -2.80154496e-01},
    { -1.65079489e-01,  -4.08821344e-01,  -6.94258735e-02,
      -3.57366890e-01,   9.21628475e-02,   5.76699555e-01,
      2.57819116e-01,  -1.60552800e-01,   2.07279295e-01,
      3.81641179e-01,   1.78718455e-02,   3.69247608e-02,
      -1.59738376e-03,   1.20918881e-02,   4.56373692e-01,
      4.44400251e-01,   1.70829549e-01,  -9.88961756e-02,
      -5.89072347e-01,  -3.94115746e-01,   8.19682889e-03,
      -3.92816007e-01,   2.79187679e-01,  -4.74029303e-01,
      -5.71718097e-01,   4.63018149e-01,  -7.26337964e-03,
      4.30561662e-01,   2.09781788e-02,  -2.21035331e-01,
      -1.10317156e-01,   5.59534550e-01},
    {  2.48135000e-01,   2.65080571e-01,  -3.41262996e-01,
       2.93484479e-01,   5.05445302e-01,  -2.83300102e-01,
       3.93168628e-01,   1.66153029e-01,   3.67301136e-01,
       -3.66776943e-01,   3.32340479e-01,  -3.94323677e-01,
       2.37191692e-01,   5.50482236e-02,   2.32441813e-01,
       -3.51342350e-01,  -2.64896750e-01,   3.52636069e-01,
       -5.24373055e-01,   2.20258281e-01,   3.23285103e-01,
       1.66576624e-01,  -4.74369347e-01,  -3.21423590e-01,
       9.08732861e-02,  -4.91610378e-01,   2.19521001e-01,
       -3.37903410e-01,  -1.33799255e-01,   2.25063995e-01,
       4.06459361e-01,  -2.16183905e-02},
    {  7.43339062e-02,  -4.74891335e-01,  -5.28400540e-01,
       4.37992901e-01,  -4.14408535e-01,  -5.20730317e-02,
       -3.30048949e-02,  -3.05240303e-01,   1.58335585e-02,
       2.94804275e-01,   3.23206127e-01,   1.52162835e-01,
       -3.25214341e-02,  -4.16813046e-01,  -3.36386681e-01,
       -2.84677953e-01,   3.80688787e-01,   4.63612646e-01,
       -7.76861310e-02,   4.61127698e-01,   7.15558082e-02,
       -1.41493842e-01,   3.90754044e-01,   4.46496964e-01,
       -2.39659131e-01,   4.24510896e-01,   1.88736990e-01,
       -4.79801387e-01,  -1.26867453e-02,  -4.49663222e-01,
       -5.77326536e-01,   2.08257139e-01},
    { -2.90811807e-01,   2.70990342e-01,  -5.42681515e-01,
      -3.48406672e-01,   2.62468100e-01,   3.17684770e-01,
      2.69427717e-01,   5.74571965e-03,   3.59177381e-01,
      1.54040739e-01,   3.96822959e-01,   2.62419254e-01,
      -4.46060896e-02,   2.73249783e-02,  -3.78751196e-02,
      -1.89803317e-01,   2.34746098e-04,  -1.11953676e-01,
      1.11424081e-01,   4.27789718e-01,  -1.14366092e-01,
      7.38110626e-03,  -6.58141196e-01,   5.99580966e-02,
      4.13840324e-01,   4.39734459e-01,  -1.10000357e-01,
      2.66868949e-01,   3.60762894e-01,  -1.79942802e-01,
      2.23036155e-01,  -3.67879868e-01},
    {  3.81174773e-01,   1.04337066e-01,   4.41799074e-01,
       -4.13343936e-01,   2.20349312e-01,  -1.80952981e-01,
       -4.01074708e-01,  -5.92003107e-01,  -2.54282862e-01,
       -1.68366894e-01,   4.35347289e-01,  -5.98828122e-02,
       -2.45516136e-01,   2.26458356e-01,  -2.53164798e-01,
       3.17762882e-01,   8.85139853e-02,   4.38393354e-01,
       -2.77922094e-01,   5.97456872e-01,  -2.82518536e-01,
       4.25752789e-01,  -2.13929370e-01,  -4.65735465e-01,
       2.54058689e-01,  -4.22000945e-01,   3.72881860e-01,
       -4.98702586e-01,   2.55300313e-01,  -2.09244430e-01,
       -2.74315298e-01,   1.51144207e-01},
    {  6.24168992e-01,   1.16859689e-01,  -3.13371241e-01,
       -3.85522127e-01,   2.65579466e-02,   5.62262572e-02,
       1.36370227e-01,  -2.22197957e-02,  -2.07660392e-01,
       8.45742077e-02,   3.96073192e-01,  -4.64472137e-02,
       4.43151474e-01,  -2.76839703e-01,  -4.04201686e-01,
       -1.20108597e-01,   3.49687487e-01,   1.72177836e-01,
       -3.12025398e-01,   1.30437970e-01,   5.36898553e-01,
       5.49180984e-01,  -2.07015336e-01,  -4.97977048e-01,
       -1.76288903e-01,  -5.99703372e-01,  -2.00747609e-01,
       -3.74441534e-01,   1.93643689e-01,   2.57988185e-01,
       -2.10367754e-01,  -4.66205031e-01},
    { -3.74411792e-01,   1.49699584e-01,   3.82674672e-02,
      3.51897538e-01,   1.85647622e-01,   2.50426263e-01,
      -2.02387661e-01,  -5.80735266e-01,   3.49956423e-01,
      -1.58804759e-01,  -1.65715560e-01,  -4.55456346e-01,
      -4.86406446e-01,   9.38671753e-02,   1.86090020e-03,
      -9.96177569e-02,   4.92629379e-01,   4.39451963e-01,
      2.02661231e-01,  -6.25945851e-02,   3.16770047e-01,
      4.95249569e-01,   1.64847255e-01,   4.00656968e-01,
      -3.97368073e-01,   4.33501899e-01,   3.00772280e-01,
      -8.96590948e-02,   4.00490552e-01,  -1.12048194e-01,
      2.65116125e-01,   1.17688514e-01}};
