weight_t weights1[N_INPUTS][N_LAYER_1] = 
  {{  4.69886035e-01,   3.32864732e-01,   4.91058737e-01,
      -2.00682104e-01,  -4.42451656e-01,   3.49089324e-01,
      -4.61332547e-03,   4.85931367e-01,   5.42743623e-01,
      1.05694588e-02,  -3.72760952e-01,  -4.39520866e-01,
      9.36330631e-02,   4.39695045e-02,  -1.37981586e-02,
      2.95308322e-01,  -3.41242135e-01,  -2.35930711e-01,
      -1.58450946e-01,   2.37205565e-01,   2.81340659e-01,
      4.37705606e-01,  -5.77979207e-01,   3.31360459e-01,
      1.52280182e-01,   4.11959022e-01,   3.88127863e-01,
      -2.78432339e-01,   1.64806277e-01,   9.76520777e-02,
      6.27826810e-01,  -1.76469073e-01},
   {  4.24388736e-01,   6.42921925e-01,  -4.22784358e-01,
      -1.58862889e-01,   3.00285578e-01,   2.38359377e-01,
      1.95394605e-02,   3.17052841e-01,   3.26164514e-01,
      3.03764522e-01,   4.07794476e-01,   2.57050514e-01,
      5.10913372e-01,   6.25920221e-02,   5.88592231e-01,
      -2.87731797e-01,   3.86802703e-01,  -3.75764400e-01,
      -4.27033544e-01,  -1.67250395e-01,  -2.06599419e-04,
      2.47607619e-01,   2.35603064e-01,  -2.95301884e-01,
      -6.58539474e-01,   9.71146598e-02,   4.80021834e-01,
      -2.68138796e-01,  -2.33451143e-01,  -6.52442575e-01,
      -6.71008348e-01,   2.20575735e-01},
   { -4.00389880e-01,   4.38910186e-01,  -3.06240767e-01,
     -3.23651224e-01,  -3.92225534e-01,   3.57267886e-01,
     -3.97361219e-01,   3.94868463e-01,   7.80302063e-02,
     1.06056765e-01,  -4.87095058e-01,  -3.27191383e-01,
     6.44771695e-01,  -3.46972138e-01,   5.91501117e-01,
     1.55806467e-02,   2.64412999e-01,   6.41430318e-02,
     6.54864460e-02,   1.66196451e-01,   2.64521748e-01,
     6.33382648e-02,  -2.99565405e-01,   1.48377255e-01,
     -5.74795842e-01,   5.74057937e-01,   2.58876771e-01,
     9.88429412e-02,   1.18086850e-02,   3.65797281e-01,
     2.06125528e-01,  -4.03643191e-01},
   { -3.88556421e-01,  -3.38402450e-01,  -1.05541378e-01,
     -4.58934039e-01,   1.13407560e-01,   4.33230132e-01,
     1.88863114e-01,   7.28542358e-02,   4.04284179e-01,
     5.54571033e-01,  -3.20322774e-02,   7.06231669e-02,
     1.71757609e-01,   3.27457301e-02,   6.09308064e-01,
     2.85122693e-01,   3.12469471e-02,  -1.53103039e-01,
     -6.18405402e-01,  -4.98597205e-01,  -1.20579503e-01,
     -5.85806489e-01,   3.10296029e-01,  -5.19743860e-01,
     -6.18846118e-01,   6.46854103e-01,  -1.21446520e-01,
     4.27223861e-01,   9.46889296e-02,  -2.40241170e-01,
     2.13585243e-01,   4.26330417e-01},
   {  6.77106902e-02,   3.07132989e-01,  -4.08271700e-01,
      5.64430237e-01,   3.73969048e-01,  -2.94965476e-01,
      2.68711478e-01,   3.40486526e-01,   5.80298185e-01,
      -4.48332995e-01,   3.00760627e-01,  -3.55630249e-01,
      3.79427969e-01,   5.94677888e-02,   2.78144807e-01,
      -3.07702571e-01,  -1.64764538e-01,   3.23285609e-01,
      -5.93663454e-01,   1.37764916e-01,   1.83085904e-01,
      -7.66139179e-02,  -5.41784108e-01,  -3.63497049e-01,
      1.67881250e-02,  -4.24634546e-01,   9.34605524e-02,
      -3.07861149e-01,  -4.40296866e-02,   6.79265484e-02,
      6.42297626e-01,  -1.25775840e-02},
   {  1.53724924e-01,  -4.56968695e-01,  -6.19609177e-01,
      1.08014554e-01,  -3.32670778e-01,  -2.28065476e-02,
      1.10137925e-01,  -4.51573700e-01,  -2.21301410e-02,
      2.78278381e-01,   3.26373547e-01,   1.49607345e-01,
      -1.08291179e-01,  -4.12107855e-01,  -5.64781547e-01,
      -2.57253677e-01,   3.97280604e-01,   5.05163491e-01,
      -1.87055394e-01,   4.84979391e-01,   2.67138094e-01,
      7.72454590e-02,   8.83025080e-02,   3.77275258e-01,
      -1.25197366e-01,   3.87964666e-01,   1.95471302e-01,
      -4.31639403e-01,  -4.20404226e-02,  -5.92884481e-01,
      -7.10084379e-01,   3.22846532e-01},
   { -3.67289186e-01,   3.81537139e-01,  -6.02579355e-01,
     -4.78854895e-01,   4.13495451e-01,   3.19222391e-01,
     3.85795325e-01,  -1.15412861e-01,   4.02388990e-01,
     1.62365407e-01,   3.69744092e-01,   3.10960561e-01,
     -4.71964432e-03,   8.07521865e-02,  -3.72333705e-01,
     -1.72515035e-01,  -1.15229815e-01,  -2.40981907e-01,
     -2.64383983e-02,   4.09555137e-01,  -8.10084194e-02,
     7.73022249e-02,  -7.70044804e-01,   6.81896284e-02,
     4.65048432e-01,   4.54740465e-01,  -2.23615482e-01,
     4.03856546e-01,   3.30072641e-01,  -3.21361631e-01,
     8.06753803e-03,  -3.56280982e-01},
   {  3.24613631e-01,   1.15001045e-01,   3.67018849e-01,
      -5.71761250e-01,   1.51520610e-01,  -2.80782312e-01,
      -3.63941133e-01,  -6.79587126e-01,  -9.62254032e-02,
      -4.60290648e-02,   2.84527451e-01,  -1.24097146e-01,
      -1.70083731e-01,   2.24245176e-01,  -5.57738721e-01,
      3.28040361e-01,  -4.66306359e-02,   3.06923151e-01,
      -3.53631288e-01,   4.83928680e-01,  -2.15632915e-01,
      4.50591594e-01,  -3.51363987e-01,  -4.21781778e-01,
      4.96215314e-01,  -3.02800447e-01,   2.51873165e-01,
      -4.33702052e-01,   1.19063258e-01,  -3.51475626e-01,
      -3.96151364e-01,   6.05220646e-02},
   {  4.23658758e-01,  -2.48717085e-01,  -3.46449554e-01,
      -5.01381457e-01,   5.50600588e-02,   4.05263975e-02,
      2.05968305e-01,  -3.56260650e-02,  -3.12921822e-01,
      8.27094018e-02,   3.90530825e-01,  -2.47721504e-02,
      4.12245184e-01,  -2.76159734e-01,  -7.80374885e-01,
      -1.20683730e-01,   3.07958126e-01,   1.69523925e-01,
      -3.44679713e-01,   7.04858378e-02,   4.93517488e-01,
      3.06565762e-01,  -3.04837614e-01,  -5.43242455e-01,
      -2.20428452e-01,  -7.06516087e-01,  -1.28503293e-01,
      -3.51199687e-01,   2.01777846e-01,   9.73702297e-02,
      -3.27868074e-01,  -4.46466118e-01},
   { -5.47505736e-01,  -1.74534187e-01,  -6.59094751e-02,
     1.86243296e-01,   2.76881158e-01,   3.22869599e-01,
     -1.36942521e-01,  -6.55940413e-01,   2.67590165e-01,
     -3.19355577e-01,  -1.95686162e-01,  -3.92601639e-01,
     -6.24195576e-01,   1.15053512e-01,  -3.46742898e-01,
     -6.18994273e-02,   5.00961602e-01,   4.59005326e-01,
     1.10334888e-01,  -1.51589558e-01,   3.99537921e-01,
     3.25923115e-01,  -3.81595967e-03,   3.34656924e-01,
     -4.66167808e-01,   3.38534147e-01,   3.33391339e-01,
     -4.39685583e-02,   4.26117957e-01,  -2.54403949e-01,
     1.55952066e-01,   2.22431973e-01}};
